(192,)
-0.011652
-0.016878
0.010471
0.018502
-0.038584
0.002767
0.006844
-0.012858
-0.006964
-0.010335
-0.017775
0.031679
0.012173
-0.040849
-0.009186
-0.012684
-0.022979
0.002245
-0.019254
0.004096
-0.011735
-0.004002
0.024427
-0.015064
-0.042565
0.008098
-0.001578
0.030849
0.011527
-0.014883
0.043140
0.018160
0.003050
0.065460
-0.079911
0.000671
-0.040474
0.009813
-0.010691
0.027174
-0.020385
-0.011361
0.020568
0.019987
0.026577
0.033010
0.036261
-0.057258
-0.008426
-0.021900
0.032465
0.030287
-0.015964
-0.023707
-0.001324
0.057689
0.008429
0.019354
-0.022239
-0.005826
-0.001889
0.009508
0.019102
-0.026896
0.032279
-0.004853
-0.060340
0.045312
0.030547
-0.028139
0.007938
0.022435
-0.008538
-0.002690
0.016861
-0.027620
0.007681
-0.002480
-0.020754
0.042727
0.008743
0.027837
-0.005124
-0.026659
-0.008101
0.018316
0.010044
-0.019971
0.007168
0.003105
0.021579
-0.051882
0.017608
0.005704
-0.008756
-0.002790
-0.017402
0.003647
0.015915
0.013744
-0.036176
0.017142
0.008317
0.016385
0.005522
0.030552
0.019016
0.007043
-0.005425
0.007208
-0.021308
0.035938
0.020459
0.011854
0.002815
-0.033841
0.012448
0.042282
0.028888
0.036844
0.001029
-0.014568
0.044315
-0.011852
-0.018997
0.001263
-0.020904
-0.009046
0.022276
-0.032002
-0.020902
-0.015979
0.004549
-0.002896
0.041729
0.004375
0.018587
-0.039293
-0.017048
0.026780
0.005803
0.032273
0.006019
0.030931
-0.016017
-0.011402
-0.000572
0.043449
0.035731
-0.025693
0.053683
-0.026369
0.002526
0.005944
-0.029033
0.021022
-0.008493
0.001924
0.000298
-0.004454
-0.040644
0.020025
0.004186
0.023917
0.006815
0.027269
0.042554
0.028876
0.018138
0.000532
-0.018643
-0.003975
-0.025415
0.025457
-0.011064
0.034622
-0.026277
-0.023876
-0.009993
0.016379
0.004437
0.003706
0.033734
0.000128
-0.018751
-0.026229
0.031170
0.003638
-0.021990
0.016010
0.017430
-0.017277
