(384,)
-0.000450
0.002357
0.000414
-0.000068
0.000345
0.002176
0.000803
0.006758
-0.000063
0.000124
-0.000280
-0.000622
0.001804
0.000909
-0.000475
0.001953
0.002376
0.001082
0.001596
-0.000077
0.000199
0.000143
-0.000143
0.002241
0.000354
0.000333
0.000278
0.001335
0.001201
0.000369
-0.000062
0.001274
0.001895
-0.000462
-0.000954
-0.000249
-0.000824
0.000933
0.000195
-0.000081
0.002474
-0.001050
0.000078
0.001405
-0.000955
-0.000880
-0.001190
-0.000095
-0.000646
0.000023
0.001574
-0.000112
0.000099
-0.000668
0.000170
-0.000790
0.000101
-0.000213
-0.000800
0.000495
0.000478
0.000817
-0.001148
0.000095
0.000230
0.002839
0.000184
0.000089
0.002322
0.000732
0.000238
0.000491
0.000330
-0.000947
0.001009
-0.001025
0.000045
-0.000610
-0.000661
0.002086
0.001045
0.001047
-0.000158
-0.000519
-0.000140
-0.000508
0.000826
-0.001808
-0.000183
0.000282
0.000368
0.004959
0.002034
0.001446
-0.001647
0.000912
-0.000129
0.000587
0.002327
0.000003
0.000918
0.000058
0.000059
-0.000958
-0.000273
0.000686
0.001388
-0.000314
-0.000703
0.000410
0.000265
-0.000038
0.000410
0.001614
0.000070
-0.000915
0.004827
-0.000856
-0.000451
-0.000038
-0.000114
0.001148
0.001586
-0.000002
0.000318
0.001171
0.000837
0.000638
-0.001062
-0.001041
0.002862
0.000003
0.000151
-0.000429
0.000119
0.002317
0.000171
0.002333
-0.000339
0.003145
0.000799
0.004408
0.000372
-0.000005
-0.000335
-0.000238
-0.000632
0.001469
0.001009
-0.000006
0.002968
0.000874
-0.001280
-0.000465
-0.000180
0.001511
0.000868
-0.000328
0.006487
-0.000211
0.000645
-0.001528
-0.000169
0.001645
0.000240
-0.000004
-0.000539
-0.001047
-0.000333
-0.000731
0.000275
0.000797
0.000173
-0.000451
-0.000165
0.000450
-0.001467
0.001847
0.002598
0.000492
0.000489
0.000667
0.000611
-0.000288
0.000521
0.000546
-0.000679
-0.000253
0.000366
0.000536
0.000114
0.000025
-0.000240
-0.000692
-0.000225
-0.000292
0.000371
0.000058
0.001881
-0.000052
0.001320
-0.000041
-0.000122
0.000016
0.001460
0.001994
-0.000717
-0.000602
-0.000880
0.001396
0.000672
0.000740
0.001304
0.002465
0.001235
0.000001
-0.000723
0.000766
0.001084
-0.000433
0.000451
0.003054
0.001045
-0.000425
0.003087
0.002889
0.001342
-0.001188
0.001759
0.000179
0.001554
-0.000604
0.002681
-0.000910
-0.001647
-0.000047
-0.000736
-0.001488
0.000260
-0.000062
0.003002
0.003158
0.003187
-0.000032
0.004506
0.000883
0.001025
0.000072
0.000217
-0.000974
0.000338
0.000205
0.000096
0.001478
-0.000289
-0.000005
0.003031
-0.001068
0.000011
0.000001
0.001323
0.001817
0.002124
-0.000185
0.001096
-0.000689
0.000057
0.005395
-0.000534
0.002853
-0.000177
0.000320
-0.000233
0.000253
-0.000525
0.000313
0.000154
0.000809
0.000669
0.000667
-0.000347
0.001715
0.002482
0.002107
0.001855
0.000401
-0.000166
-0.001267
0.001625
0.000728
0.002139
0.001044
-0.000202
0.000029
-0.000295
-0.000990
-0.000844
0.001118
0.002698
0.002355
0.001926
0.000564
0.000036
0.000522
0.001019
-0.001034
-0.000613
0.001039
0.000475
-0.000483
0.000412
-0.000045
-0.000577
-0.001112
-0.001257
0.002381
0.000328
0.002775
-0.001400
-0.000255
-0.000915
0.000404
-0.000061
-0.000211
0.000050
0.000239
0.000817
0.000303
-0.000095
0.003030
-0.000055
-0.000485
0.003977
0.002183
0.005294
0.000638
-0.000194
0.000203
0.000973
0.002073
0.000220
-0.000694
-0.000507
-0.000109
0.000470
0.001514
-0.000229
0.001342
0.000440
-0.000380
-0.000679
-0.000524
-0.000182
0.000695
-0.000132
-0.000024
-0.000580
-0.000715
-0.001413
-0.000876
0.000254
-0.000377
0.001887
-0.000380
0.001539
0.001203
0.002794
-0.001144
0.000084
0.000653
0.002465
0.000853
-0.000237
-0.000043
0.000160
0.000661
0.000483
0.001065
0.002408
-0.000769
0.001751
-0.000546
-0.000074
-0.000073
