(128,)
0.000292
0.004923
-0.007326
0.005269
0.000613
0.003270
-0.006558
-0.014624
-0.003139
0.007502
-0.012332
0.016493
0.009809
0.006357
-0.012810
0.007831
-0.007352
0.004864
-0.005314
0.005517
-0.000098
0.009628
-0.002955
0.005245
-0.012246
-0.006662
-0.001357
-0.002173
0.013285
0.006853
-0.010259
0.006906
0.007022
0.036335
0.000672
-0.006291
0.020290
0.008243
-0.011626
0.008595
-0.012926
0.003807
-0.020699
0.000410
0.008492
0.005721
-0.010035
0.016395
0.006583
-0.002247
0.015031
0.003864
0.002712
-0.013945
-0.009492
-0.001468
-0.019310
-0.004639
0.012091
0.002767
-0.003581
-0.011887
-0.002937
0.004750
0.026361
0.005881
-0.008774
0.008121
0.019742
0.035904
-0.004221
0.005988
-0.015982
0.001239
-0.002227
-0.000258
-0.008358
-0.003988
-0.025993
0.005611
0.018563
0.011104
0.017476
-0.005713
-0.008818
0.005234
-0.000413
0.022760
-0.011558
-0.011219
-0.014318
-0.001215
-0.003754
0.003228
-0.002821
0.023136
-0.006482
0.028579
0.012154
0.009966
0.004394
0.002729
-0.022832
0.000057
0.008157
0.013524
-0.007470
-0.015706
-0.001645
-0.005956
0.000761
0.013626
-0.003328
-0.008451
0.026463
0.003465
0.010756
0.001701
-0.016718
0.007381
-0.002529
-0.005165
0.003278
0.001251
0.006724
0.009092
-0.026938
-0.016327
