(384,)
-0.029776
-0.003180
0.000434
0.014756
-0.010693
0.008945
0.007819
-0.006246
0.010471
0.023652
0.000306
-0.002406
0.009382
-0.041983
0.005278
0.000221
-0.006789
-0.036940
0.005441
-0.002671
0.020789
0.040274
0.002750
-0.027518
0.005592
0.012961
0.001275
-0.014551
0.008360
0.002906
0.011899
-0.008600
0.076149
0.009731
0.049796
0.017332
0.000477
0.011433
-0.006691
-0.010055
0.000189
-0.012904
-0.009697
0.000920
-0.006281
0.095102
-0.005007
-0.004785
-0.017421
-0.013484
-0.002668
0.001172
-0.002061
-0.005457
-0.012412
-0.006374
0.037373
0.001393
0.007213
-0.007320
0.006944
0.036678
0.011104
-0.039691
-0.015457
-0.021645
0.022106
-0.073322
0.004611
-0.032495
0.046055
0.019273
0.000349
0.065141
0.007923
0.072736
0.001486
0.017667
-0.028589
0.008701
0.015651
-0.024934
-0.002707
0.007965
0.000222
-0.061320
-0.023803
-0.012749
-0.002396
0.014502
0.002614
0.006559
0.004844
-0.001163
0.040161
-0.021392
-0.002727
-0.004051
-0.000114
0.011935
-0.021145
0.023624
0.008487
0.001874
0.006687
0.102307
-0.046491
0.000842
-0.000128
0.005696
-0.007133
0.002223
-0.002962
-0.018716
0.006226
0.003700
-0.002851
0.063214
0.004143
0.059245
-0.001785
0.003754
-0.023492
0.025160
0.007343
0.001941
0.023196
0.002158
0.011704
0.004156
0.032305
-0.028163
-0.013054
0.004271
-0.003887
-0.001017
-0.001603
-0.026585
-0.000504
0.020649
-0.008115
0.023165
0.021747
0.004691
0.005198
0.007478
0.004377
0.006908
0.000632
0.024011
0.008248
0.030788
-0.020781
0.003415
-0.002912
-0.009389
0.002328
0.002390
0.033028
0.000781
0.083610
0.009809
0.014762
0.072308
-0.005513
-0.008067
0.000765
0.012883
0.062214
0.016938
0.029379
0.011489
-0.002964
0.044755
0.008174
0.023586
0.005095
0.003690
0.007056
0.039594
-0.007398
0.029407
0.010153
-0.009576
0.020307
0.001543
-0.013457
0.004419
0.009384
0.000083
0.002375
0.018747
0.011317
-0.002661
-0.013109
0.001465
0.053337
-0.000263
0.008960
0.010026
0.071908
0.007851
0.000332
0.000937
0.055521
0.001822
-0.051309
-0.030558
-0.005900
0.015877
0.004041
0.002572
-0.011397
0.018120
-0.015368
0.009740
0.004566
-0.016025
0.017710
-0.029494
-0.049322
0.012285
-0.026464
0.002675
0.002623
-0.015223
0.004510
-0.009088
0.033175
-0.015435
0.053084
0.027335
0.043641
-0.000390
0.001540
0.012935
0.006119
0.011003
0.028917
0.012905
-0.019051
0.001368
0.005791
0.024355
-0.000906
0.009855
0.014696
-0.000387
0.006130
-0.016790
-0.003961
-0.003798
0.001791
-0.024756
-0.012884
-0.001156
0.020389
0.002626
0.032740
-0.003013
-0.004589
0.033135
0.037686
-0.024016
0.003034
-0.007138
0.005607
0.002316
0.005473
0.004849
0.000833
-0.008514
0.000027
0.016607
-0.050297
-0.003276
0.047774
0.007032
-0.001591
0.000363
-0.003182
0.009552
0.034810
0.016273
0.004696
-0.008244
0.027462
0.000651
-0.049950
-0.005897
0.004228
-0.009316
-0.014907
0.010603
0.001082
0.018477
-0.014926
0.025271
0.007993
0.007422
0.001682
-0.024189
0.009422
0.004069
-0.002729
-0.036282
-0.002012
-0.005895
0.003800
-0.012034
-0.014390
-0.016540
-0.007529
0.033181
-0.049183
0.021244
0.004820
-0.070768
0.008371
0.002569
0.017560
-0.000530
0.002903
0.003433
-0.002612
0.047486
-0.000229
0.016089
0.013530
0.015248
0.000623
-0.005167
0.011968
0.013586
-0.004988
0.014633
0.039442
-0.012576
-0.000225
0.093791
0.011114
0.000012
0.014181
-0.000612
-0.000404
0.022853
0.001434
0.005653
0.004757
0.025887
0.025445
-0.001905
0.005023
-0.030380
0.004348
0.010674
0.003449
0.009001
0.008437
-0.005803
0.051168
-0.025498
-0.047824
-0.004262
0.001966
0.013887
0.014670
0.000289
-0.002631
0.022484
0.021986
0.000471
0.003408
0.012663
0.043406
0.031570
0.009812
-0.001978
0.006509
0.006665
0.006090
0.014949
0.020418
-0.009128
