(128,)
-0.000015
-0.010946
-0.003104
0.005314
0.032850
0.016990
-0.001045
0.001058
-0.001986
-0.007578
0.006934
-0.004382
0.006457
-0.002215
-0.010483
0.003523
-0.010848
-0.006871
-0.002245
0.011853
-0.002670
-0.008616
-0.005489
0.002704
-0.003669
-0.019496
0.005807
-0.000744
-0.008960
0.000168
0.004882
0.005598
0.032277
0.019101
-0.001586
-0.002547
0.004521
-0.002352
0.012847
-0.003634
-0.001087
-0.009048
0.002738
-0.011642
0.011696
-0.007823
0.003224
0.002028
-0.003219
-0.001482
0.018630
0.025213
0.026771
-0.001528
0.003562
0.016675
0.009533
0.010304
-0.002018
0.023504
-0.003936
0.000991
0.013547
-0.022689
0.022044
-0.008249
-0.000297
0.014083
-0.011796
0.014033
0.050417
0.012586
-0.008275
-0.006960
-0.000380
-0.006938
-0.004116
-0.011624
0.003982
0.027817
-0.005433
0.002957
-0.001860
0.005435
0.006689
0.000244
0.006863
0.026892
0.005171
0.007011
-0.001516
0.000847
0.005064
0.025289
0.003628
0.014335
0.005584
0.042397
-0.010348
-0.010856
0.010872
0.002164
-0.010979
-0.003754
-0.010825
-0.020334
0.001173
-0.007782
-0.005303
-0.000187
-0.005379
0.009322
0.000691
-0.003981
-0.006783
-0.002896
-0.013444
0.026292
-0.012380
0.001633
0.007817
-0.000528
-0.002469
-0.010305
-0.004850
-0.006384
0.002276
-0.005485
