(192,)
0.004952
-0.002165
0.004457
-0.009033
-0.005749
0.001012
0.013911
-0.004214
-0.002765
-0.004859
0.001128
0.016230
0.010877
0.011581
-0.001978
0.005278
0.004745
-0.005282
-0.008709
-0.001677
-0.002727
-0.000360
-0.020962
0.010877
0.004646
0.011731
0.008106
-0.008865
-0.001128
0.007588
0.000496
0.002968
0.014346
0.007786
0.009278
0.017382
-0.003578
0.011700
-0.003664
0.013043
0.004985
-0.002053
0.008608
0.009149
-0.006457
0.011360
0.012774
-0.005494
0.007896
0.007033
0.007220
-0.006791
0.008176
0.012856
0.003283
0.015791
0.009018
0.007148
0.001742
-0.003474
-0.009302
0.006054
0.007304
-0.004909
0.016020
-0.007520
-0.005824
-0.001079
0.002370
-0.001424
0.004737
0.009533
0.002892
-0.001006
0.006750
0.008820
-0.003832
0.013302
0.005873
0.001832
-0.012223
-0.007145
-0.003144
0.004436
0.032670
-0.011040
0.000344
0.008350
0.028276
-0.005084
0.020722
-0.005959
0.012017
0.009915
0.015608
0.008138
0.005786
0.020541
0.025877
-0.002143
-0.005645
0.004234
-0.001233
0.005956
0.010082
0.007511
0.007666
0.011197
-0.003317
-0.001749
0.012047
0.009778
0.009486
0.020313
0.010752
0.007926
-0.002929
0.001923
0.003481
-0.008151
0.009920
0.003736
-0.005254
0.015949
-0.003544
0.001991
0.020674
0.021030
-0.018646
-0.002020
-0.010413
0.001764
-0.006403
-0.003761
0.018113
-0.007909
0.010379
0.022115
0.008909
0.012965
-0.016142
0.008925
0.004970
0.024965
-0.006207
-0.008771
-0.002287
0.001192
0.000547
-0.002471
-0.001357
0.018530
0.006490
-0.004162
-0.003528
-0.013113
0.011973
0.002541
0.008197
-0.002040
0.014547
0.011712
-0.014018
0.002120
0.003119
0.009966
0.006793
0.016730
0.001236
0.034339
0.017863
-0.000716
0.011948
-0.002477
0.027257
0.001160
0.000876
0.016827
0.007290
-0.004689
0.018331
-0.002366
-0.003352
0.012487
-0.005207
-0.003267
0.012625
-0.003972
0.012513
0.000591
0.000530
0.006526
