(128,)
-0.009949
-0.015737
0.023321
0.030520
-0.014059
0.013895
0.065089
-0.001412
0.027393
0.027125
-0.001362
-0.016557
-0.017339
-0.002480
0.011266
-0.042176
0.025208
0.009267
-0.012274
0.011423
-0.003868
0.028421
-0.012649
0.003755
0.007666
0.037491
0.010154
-0.020389
0.026636
-0.002885
-0.007481
0.001321
0.033534
0.015934
-0.025302
0.035485
-0.000245
0.048952
-0.000526
0.028263
0.013207
-0.001445
0.028116
0.019767
0.020157
0.014723
0.055881
0.010542
0.011164
-0.002736
0.016362
0.019250
-0.008469
-0.003448
0.017461
0.052087
0.009359
0.005723
0.006597
0.018097
0.001367
0.037240
-0.016394
0.015274
-0.008136
-0.000751
0.003300
0.023070
-0.006881
-0.038647
0.021165
-0.002951
0.004216
0.026061
0.023522
0.003866
-0.005538
-0.010619
-0.015791
0.012884
0.013955
0.023706
0.024227
-0.017563
0.009351
-0.001091
-0.001998
-0.010714
0.011425
0.016875
-0.013901
0.004750
0.023320
0.012268
0.014999
0.012939
0.004534
0.005976
0.056269
0.009681
0.003664
0.030845
0.012288
0.000245
0.008748
0.007229
0.031211
0.010350
0.051493
0.058596
0.006045
-0.002689
0.005222
0.035582
0.004763
0.011518
0.003801
-0.004946
0.001510
0.002823
-0.017629
-0.018907
0.014133
0.045723
-0.011211
0.023945
0.010588
0.026021
