(128,)
0.017763
0.016448
-0.017128
0.004754
0.027494
-0.021662
0.002949
0.025078
-0.045259
-0.000032
0.013720
-0.000504
0.009555
-0.001610
0.001685
0.022712
0.024744
0.003450
0.002238
-0.007087
0.006404
0.000538
-0.030816
0.049057
0.048420
-0.002143
-0.033357
0.017946
0.007557
0.030682
-0.013021
0.010620
0.039627
0.049812
0.001604
0.001276
0.029627
-0.011159
-0.005627
0.033443
0.021685
0.018971
-0.012158
-0.021295
0.015913
0.004109
-0.008090
0.066837
0.043034
0.000714
0.033033
-0.003397
-0.015042
0.007458
0.000049
-0.028949
0.049608
0.025376
-0.021678
-0.015596
0.002893
0.029002
0.015037
0.022652
0.025949
0.018715
0.002615
0.037986
-0.009847
0.012162
-0.006321
0.007505
0.026678
-0.037031
0.020459
-0.006229
0.080270
0.010503
0.024490
-0.014265
0.013439
-0.001420
0.029947
-0.005715
0.026270
0.038962
0.023240
0.020185
0.027595
-0.028020
-0.001075
-0.002230
-0.032626
0.040879
-0.051354
0.028810
-0.012912
-0.006819
0.033693
-0.006297
-0.004575
0.006810
0.036858
0.031495
0.038887
0.020703
-0.009358
0.011442
0.015049
0.024521
0.022139
0.008180
-0.013213
0.007234
-0.009939
0.039957
0.014205
-0.009472
0.109996
0.026466
0.040726
0.003871
0.004881
0.043174
0.002174
0.018943
-0.011988
0.003653
