(384,)
0.000294
0.001690
-0.000222
-0.000952
0.004674
-0.001089
0.000951
0.000302
-0.000049
0.000468
0.000744
0.000768
0.000108
-0.000418
0.000015
-0.000540
0.003020
-0.000014
0.001743
0.000501
0.000334
-0.000444
0.000152
0.002706
0.000302
-0.000541
0.000010
-0.000483
-0.000043
-0.000312
0.002576
0.002308
0.000936
0.000428
-0.000129
-0.000041
0.000750
0.001078
0.000774
0.001096
0.000084
0.000527
0.000320
-0.000374
0.001098
-0.000181
0.001242
0.000428
0.002775
0.000088
0.002127
-0.000278
-0.000161
0.000184
-0.000195
-0.000270
-0.000485
0.000067
0.002270
0.000958
-0.000103
-0.000352
-0.000397
0.000468
0.000466
0.000562
0.000454
0.000198
-0.000174
0.002408
0.000130
-0.001766
0.000047
-0.000510
-0.000285
-0.000594
-0.000245
-0.001102
0.006739
-0.000251
0.000246
-0.000305
0.000513
0.003475
0.000601
0.000329
0.000741
0.000057
0.000175
0.004963
-0.000485
-0.000508
-0.000786
0.000557
0.002516
-0.000200
-0.000229
0.002010
0.000315
0.000697
0.002667
-0.000156
-0.000040
0.000978
0.000088
0.004569
0.001039
0.000573
0.000016
-0.000646
0.000236
-0.000262
0.002303
0.000383
0.000249
0.000087
-0.000223
-0.000467
-0.000880
0.000098
0.000383
0.000321
0.000153
-0.000085
-0.000537
-0.000257
0.000690
0.000307
-0.000178
0.000585
-0.000235
0.001376
0.003001
-0.000533
0.000799
0.000307
0.003277
0.000561
-0.000339
0.000553
0.004516
-0.000116
-0.000294
-0.000052
-0.000150
0.000537
-0.000018
0.000724
-0.000364
-0.000034
0.000094
0.001076
0.003085
0.002219
0.002322
0.001454
0.000554
0.001447
0.000036
-0.000395
-0.000224
-0.000012
-0.000613
-0.000447
0.003851
0.000403
-0.001033
-0.001321
0.000439
-0.000157
-0.000228
-0.000079
-0.000181
-0.000285
0.000541
-0.000064
0.000549
0.000707
-0.000228
-0.000840
0.000589
-0.000299
-0.000138
-0.000458
0.001147
-0.000001
0.001018
-0.000177
-0.000396
0.000032
0.003121
0.000888
0.000332
0.001315
-0.000375
-0.000648
-0.000515
0.002191
0.000010
0.000547
-0.000541
0.000047
-0.000081
-0.001252
0.002104
-0.000098
0.000155
0.000246
0.000004
-0.000017
0.000798
0.000362
0.000266
0.001049
0.001584
-0.000274
-0.000710
0.000512
-0.000429
0.001460
-0.000034
0.004890
0.001048
0.000376
0.000290
-0.000561
0.001431
0.000081
0.002394
0.000410
0.004181
0.000162
0.000425
-0.001289
0.001930
-0.000208
0.000517
0.000313
0.000662
-0.000295
0.002921
0.000296
-0.000941
0.003030
0.000601
-0.000034
-0.000428
-0.001169
0.003523
-0.000251
0.002868
0.000166
0.001752
0.002547
-0.000459
0.001674
0.000541
0.003124
0.000026
0.000426
0.000463
-0.000008
0.000029
0.004049
-0.000425
0.000071
-0.000094
-0.000266
-0.000313
0.000214
0.002087
0.002333
-0.000390
0.000694
0.000811
0.000591
0.001010
-0.000107
-0.000189
-0.000545
0.000026
-0.000650
0.001379
-0.001051
-0.000410
0.003160
-0.000588
-0.000572
0.001587
-0.000219
-0.000473
0.000077
-0.000040
0.000604
0.000273
-0.000251
-0.000275
-0.000279
0.000109
0.000088
-0.000392
-0.000349
0.004984
0.000470
0.003110
0.000419
-0.000962
-0.000075
0.000310
-0.000217
-0.000596
0.002340
0.000546
-0.000200
0.004386
0.001128
0.006208
-0.000297
-0.000043
-0.000737
-0.000342
-0.000014
0.000574
-0.000773
-0.000118
-0.000344
0.000405
0.000625
0.000211
0.003105
-0.000034
-0.000318
0.007053
-0.000187
-0.000817
0.000662
0.002418
-0.001101
-0.000497
0.000494
-0.001173
0.000308
0.000652
0.003112
-0.000908
-0.000575
0.000275
-0.000031
0.002092
0.001992
0.000124
0.000248
0.001142
-0.000726
0.000630
0.004822
0.000286
-0.000494
0.001293
0.000142
0.000476
-0.000198
-0.000023
0.000977
-0.000036
-0.000024
0.000695
0.000518
0.000379
0.000086
0.000299
0.002259
0.001079
-0.000234
0.006976
0.000050
0.000276
0.000443
-0.000368
0.000054
0.000423
0.002447
0.000354
0.000195
