(256,)
-0.043224
-0.076295
0.011995
-0.025799
0.036795
0.033250
-0.044133
-0.032546
-0.019741
0.042067
0.021555
0.074378
0.132848
-0.016420
-0.004272
0.023642
-0.021675
-0.028134
-0.076080
0.027034
-0.050161
0.063347
-0.015057
-0.000643
0.048977
-0.038064
0.109554
0.005383
0.021963
-0.002270
-0.058293
-0.027575
0.006361
0.017372
-0.046015
-0.094233
-0.036166
0.017478
-0.029480
0.093643
-0.016873
-0.065355
0.015185
0.042323
-0.071865
-0.051015
-0.070914
-0.086519
-0.019183
0.109371
-0.002931
0.016824
-0.042805
0.034487
0.014110
-0.014136
-0.022432
-0.053186
0.061741
0.017699
0.023157
-0.063147
-0.086832
0.051464
0.076128
-0.014885
0.019863
-0.033224
0.035781
0.007362
-0.002600
-0.023905
-0.028612
0.008972
-0.103459
0.161854
0.023316
0.027703
-0.023929
0.040153
0.028921
-0.045482
0.050740
-0.036733
0.017651
-0.026273
0.054886
-0.009968
-0.019497
0.022127
-0.047055
-0.004651
-0.067217
0.004862
0.049974
-0.018880
0.025483
0.032262
-0.083841
-0.044496
0.087846
0.022122
-0.020086
0.032671
-0.015261
-0.011604
0.083867
-0.082322
-0.003551
-0.003057
-0.051836
0.045552
0.001966
-0.012377
-0.067264
0.008486
-0.053165
0.025505
0.055979
-0.066715
-0.006176
0.166688
0.017045
-0.072375
0.070650
-0.009311
-0.004698
0.058927
0.031620
-0.081126
0.019704
-0.000631
0.112691
0.011750
-0.036134
0.028097
0.064116
0.058896
0.048443
0.083163
-0.029118
-0.019912
-0.061947
0.017163
-0.017883
0.041001
-0.026908
-0.017538
-0.049711
-0.003869
-0.015029
0.020784
-0.102473
0.068208
-0.000307
0.005644
-0.013790
0.020762
-0.060290
0.019255
0.048298
-0.011176
-0.015704
-0.078249
0.000761
0.031651
-0.074531
0.042641
0.061396
-0.001236
0.001506
-0.058151
0.009755
-0.061182
0.111773
0.029407
0.075721
0.099695
-0.044999
-0.034961
0.023716
-0.056664
-0.013157
0.001055
0.063020
-0.017263
-0.027707
-0.021725
0.032229
-0.009558
0.041912
0.005343
-0.039440
-0.062318
-0.007441
0.041138
0.017465
-0.007527
0.014360
0.028203
-0.074327
0.044213
-0.029220
0.392694
-0.059068
-0.057847
0.013459
0.015488
0.076559
-0.007311
-0.092070
0.098494
-0.091574
0.148026
-0.018908
0.055818
-0.069796
-0.007541
-0.000025
-0.010060
-0.068270
0.042927
-0.057698
0.137047
0.000122
0.036061
0.011008
0.043142
-0.012244
-0.044277
-0.053408
-0.080181
0.059159
0.079299
0.023785
-0.031134
0.046679
0.062117
-0.021078
-0.046821
0.042197
0.021473
0.012249
0.021801
0.002246
0.019835
0.077284
-0.089034
-0.045005
0.016748
-0.024905
-0.052179
0.028949
0.012452
-0.053250
0.051072
