(384,)
0.009176
0.001255
0.005449
-0.001687
0.019855
0.001126
0.001654
0.003732
0.000430
0.003388
0.000631
0.000537
-0.001090
0.001053
-0.003035
0.006356
0.007324
0.000843
0.005786
0.003533
0.000215
0.006083
0.000943
0.001552
-0.001755
0.004698
-0.001696
0.001260
0.009735
0.000916
0.000702
0.001459
0.007092
0.004459
0.000319
0.007781
0.005369
-0.000365
0.000484
-0.000910
-0.002178
0.000812
0.012427
0.000337
0.001217
0.000127
0.000488
-0.000433
0.007558
0.000702
0.000341
-0.000712
0.001591
-0.001943
-0.000601
0.008415
0.007419
0.001191
-0.000774
0.000090
0.003246
0.002016
0.000677
0.000001
0.000372
0.008678
0.000955
-0.000291
0.000024
0.009873
-0.001427
0.000827
0.000140
-0.001612
-0.000034
0.000637
0.000343
0.003110
0.008159
0.000419
-0.000634
0.021812
0.038250
0.003879
-0.002229
-0.000305
0.002013
0.000889
-0.001489
-0.003749
0.000862
-0.000083
0.001172
-0.000913
0.000569
0.000611
-0.000232
0.000586
0.000795
0.004275
0.008485
0.016396
0.013774
0.020033
0.001648
0.000014
0.002529
-0.000017
0.000068
-0.002095
0.007408
-0.000833
0.001745
0.000454
0.000883
0.010715
0.012827
0.002432
0.000039
0.009582
0.000687
0.000061
-0.000698
0.000931
0.001514
0.000246
-0.000259
-0.000291
0.003799
0.002339
0.000113
0.006112
0.014492
0.000013
0.007633
0.017462
0.002301
0.010365
0.005637
0.012643
0.009794
-0.001733
0.012870
0.002471
0.010927
0.005293
-0.001106
0.000414
0.005824
0.002772
0.003771
0.000932
-0.000038
0.007956
0.004282
0.001974
0.007542
0.000993
0.001324
0.001668
0.001564
-0.001551
0.015576
-0.000209
0.004657
0.009806
0.000551
0.006650
0.001421
0.000987
0.000242
0.017393
0.002293
0.000720
0.001009
0.005152
-0.000985
0.007932
0.001818
0.012095
0.003509
0.000006
0.003596
0.005092
0.001634
0.006578
0.000302
0.014957
0.004802
0.001830
0.001892
0.006093
0.001105
-0.000235
0.001118
-0.000528
0.004786
0.001021
0.002722
-0.000152
0.006863
0.002417
0.011125
0.000031
-0.000013
-0.000036
0.000966
0.004544
0.009333
0.001994
0.000315
0.000042
0.012290
0.000612
0.002700
-0.000085
-0.001431
0.000483
0.005371
0.006285
0.020323
0.008346
0.039020
0.001041
0.018490
-0.000001
-0.000700
-0.000093
0.004083
-0.001074
0.000024
0.016933
0.009016
0.000257
-0.000152
-0.002835
0.000111
0.006861
0.000847
-0.003952
0.006976
-0.002457
0.007385
0.000823
0.000327
0.013461
0.001578
-0.000819
0.000255
0.011095
0.006862
-0.000285
0.004158
0.007867
0.007677
-0.000131
-0.001105
0.000561
0.001293
0.008693
0.001239
0.000096
-0.001911
0.001340
0.003988
-0.001804
0.000314
0.009939
0.001957
0.000550
0.002026
0.000804
0.009217
0.021883
0.000117
-0.000066
0.001476
0.002456
0.001291
0.005927
-0.000093
0.001094
-0.000245
0.002361
0.002286
-0.000067
0.000107
0.003780
0.000466
0.027267
0.004418
0.011937
0.004158
0.015155
0.001499
0.000135
-0.001827
0.006087
-0.002368
0.001529
-0.001297
0.000329
0.000502
-0.000253
-0.002795
0.001335
0.000125
0.003782
0.011043
0.000059
0.000051
-0.000004
-0.000414
0.003067
0.000982
0.003938
0.016846
0.000125
0.004253
-0.000089
0.000639
-0.000119
0.001669
0.000820
0.000016
-0.000030
0.000062
0.014420
0.000654
0.010878
0.000002
0.005336
0.000789
0.001039
-0.000401
0.002233
0.000668
-0.001381
0.000629
0.000485
0.002823
0.014679
0.003143
0.011744
-0.000288
0.002250
-0.000018
0.002993
0.003322
-0.000260
0.000773
0.002506
0.000162
0.000013
0.000003
-0.002612
-0.002874
0.001630
0.000105
0.001335
0.000402
0.001111
0.003341
0.000436
0.004824
0.000112
0.000910
-0.000103
0.000008
-0.000083
-0.001095
0.003023
-0.000332
0.002302
-0.001116
0.001237
0.003752
0.000953
0.002381
0.029861
-0.000091
0.008968
0.005098
0.001931
