(192,)
-0.014683
0.084783
-0.069330
0.001879
0.031562
-0.001616
-0.032009
0.079794
-0.034176
0.032234
0.033632
0.014205
-0.054229
0.033673
0.019336
0.009427
0.077172
0.016362
0.019289
-0.004203
-0.001789
0.090335
0.009798
-0.027678
-0.030790
0.098111
-0.014613
-0.106364
0.015279
0.060511
-0.103644
-0.001668
0.029082
-0.045754
0.084237
0.023617
0.095200
-0.015212
-0.007121
0.053963
0.007400
0.098960
-0.036270
0.005023
-0.018622
0.113768
0.029905
0.012798
-0.038721
-0.046796
-0.014735
0.068490
0.049136
0.042930
-0.001269
0.073474
-0.009324
0.107185
-0.064990
-0.021599
0.007050
0.053661
-0.045319
0.012572
0.097020
0.020194
0.033377
0.011804
0.057184
0.034664
0.079274
-0.019786
0.049218
0.151711
0.043767
0.026231
-0.048879
-0.061484
0.056610
0.073171
0.018311
0.024794
0.001510
-0.024599
0.186333
0.016258
0.020683
0.019688
0.059994
0.043213
-0.069766
0.067368
0.058597
-0.063132
0.056410
-0.009720
-0.039590
-0.022093
0.049638
0.038816
0.085510
0.003824
-0.041811
0.022093
-0.003379
0.023554
0.107979
0.031814
0.067926
-0.046837
-0.037017
0.032399
0.108281
0.047133
0.070790
0.072978
-0.022690
-0.003197
0.077727
0.034946
-0.092514
-0.048575
0.003136
0.015352
0.043236
-0.078859
-0.030471
-0.018092
0.076942
0.026922
0.058488
0.041691
0.153509
-0.001211
0.033464
-0.081369
0.009683
0.017237
-0.002667
0.053688
0.005049
0.036672
-0.021363
0.031935
-0.031579
-0.037779
0.032234
-0.036358
0.054089
-0.031255
-0.066186
0.271295
0.019016
-0.020325
0.018312
0.021503
0.023727
0.007949
0.044584
-0.090651
0.012425
0.001384
-0.030999
0.002480
-0.041215
-0.007744
0.076632
0.102881
-0.013990
-0.055932
-0.027158
-0.084419
0.091189
0.048061
-0.015937
-0.125696
-0.009178
0.057064
-0.018678
0.063148
0.147233
0.065725
-0.039675
0.017859
0.071419
-0.014520
0.044077
0.004206
-0.004864
0.041545
-0.013855
0.080648
