(256,)
-0.000365
0.025176
0.065235
0.022646
0.426828
0.059631
0.058194
0.115831
0.042211
0.016564
0.323377
0.204089
-0.008583
0.060951
-0.034295
-0.003503
-0.056378
0.106081
0.033447
0.020771
0.020427
0.074741
0.108781
-0.000256
0.114487
0.040751
0.001700
0.085670
0.021528
0.050710
0.156106
0.036476
0.050830
0.023968
-0.004911
0.068172
0.017148
0.030079
0.081594
0.101309
0.097640
0.022939
-0.000926
-0.003893
0.016866
0.277287
0.147391
0.019114
0.392340
0.182587
0.029446
0.077681
0.005592
-0.015736
-0.001128
0.036385
0.032658
0.149018
0.050558
0.267777
0.085734
0.035208
-0.015471
0.083365
-0.013776
0.044555
0.073141
-0.007984
0.017441
0.000224
-0.038149
-0.020094
0.035384
-0.081605
0.031072
0.073012
-0.001906
0.052221
0.077748
-0.011405
0.046225
0.100438
0.077341
0.022249
0.002527
0.062934
-0.027566
0.043832
0.026238
0.102674
0.002585
0.001016
0.005628
-0.003267
-0.003340
0.011019
0.069788
0.061368
-0.013049
-0.017212
0.066017
0.001413
0.039877
0.024221
0.042091
0.086080
0.002727
0.011819
-0.002005
0.013259
0.002381
0.012699
0.237681
0.036097
-0.018823
0.097708
0.003897
0.079417
0.162621
0.019766
0.030827
0.012959
0.005042
0.038703
0.101523
-0.001152
-0.049416
-0.015068
0.022565
0.031178
-0.007841
0.003850
0.027340
0.146395
0.024322
0.018671
0.083164
-0.001262
0.008853
0.020683
-0.029798
0.008101
0.008115
0.671298
0.004614
-0.009984
-0.012931
0.012417
0.123511
0.031710
0.046489
0.028552
0.210320
0.030227
0.006765
-0.001438
0.600115
0.077374
0.013048
0.060746
0.000862
0.054902
-0.002419
0.069039
0.022887
0.052599
-0.058736
0.060121
0.043943
0.033042
0.021095
0.018112
0.050630
0.216928
0.032754
0.051804
0.076675
-0.000396
0.099628
0.001804
0.027616
-0.000229
-0.023050
0.082674
0.037002
0.013246
-0.000336
0.027158
0.020291
0.064366
-0.010935
0.088062
0.048991
0.049145
0.068130
0.042559
-0.018171
0.219414
0.198807
0.028971
0.070826
0.003743
0.024690
0.004382
0.013507
0.003455
-0.012359
0.000926
0.024022
0.022901
0.064512
-0.006645
-0.007046
0.146859
0.002649
-0.005351
0.008608
0.122986
0.094674
0.010162
-0.003610
0.096076
0.004264
0.034029
0.103221
0.069358
-0.012931
0.002800
0.064293
0.028201
0.009401
0.090411
0.045820
0.137951
0.059659
0.163663
0.052891
-0.011009
-0.022660
0.076265
0.013918
0.003333
0.029132
0.094384
0.040819
0.020237
0.023006
0.056882
0.024596
0.005219
-0.025215
-0.015861
0.017707
0.039758
0.030939
0.023296
