(192,)
0.013792
-0.011033
0.002621
0.005304
-0.005779
0.008520
-0.030936
0.021559
-0.016444
-0.003239
0.000426
-0.000310
0.044588
-0.007732
0.003357
-0.007540
-0.012720
0.004270
0.028363
-0.014706
0.012589
0.021029
0.016061
0.008866
0.005975
0.003753
0.021592
0.023385
-0.015610
-0.000469
-0.029483
0.004037
-0.002864
0.017890
-0.001654
-0.032320
0.004709
0.018149
-0.011371
-0.004050
0.008088
0.003505
0.028654
0.001902
0.014303
-0.000219
0.009437
-0.001371
0.022640
0.037361
-0.004875
-0.005111
0.006341
-0.009801
0.020494
-0.003696
-0.030660
-0.006922
0.014954
-0.004508
-0.008437
0.024663
0.022186
-0.002741
0.017472
-0.029449
0.013921
-0.020370
0.026138
-0.008692
0.016346
0.031133
0.040307
0.015503
-0.008805
-0.010241
-0.007687
-0.003784
0.015458
0.024734
0.012050
-0.017377
0.018277
-0.018247
0.004481
0.005755
0.022306
0.023838
-0.015749
0.013980
-0.005537
0.009577
0.022929
-0.016727
-0.009617
0.022551
0.014269
-0.029973
0.001141
-0.007950
0.024496
0.020431
0.007757
0.012128
-0.011640
-0.010858
-0.005595
0.002635
-0.026138
0.003136
0.020862
0.008118
-0.013501
0.011568
-0.012746
-0.005122
0.032958
0.000673
0.036015
0.000303
0.008983
0.012249
-0.003119
0.014797
0.006451
-0.010742
0.019838
-0.009881
-0.020009
0.013753
0.001372
0.002130
-0.011927
0.015632
0.006911
0.011364
0.013957
-0.009498
0.000376
-0.000693
0.003623
0.007981
-0.008034
0.013838
-0.005477
-0.021686
0.006292
0.022070
0.012750
0.012917
0.002676
0.031719
0.019022
0.008660
0.001807
-0.005543
-0.006626
-0.006139
-0.000627
0.022620
0.022558
-0.023245
0.016620
-0.001399
-0.002208
-0.002389
0.028227
0.004300
-0.025765
-0.009127
0.005011
-0.010098
0.008250
0.002014
-0.006940
0.000253
0.017742
-0.008871
0.015410
0.005975
-0.007091
-0.008550
-0.008522
-0.006583
-0.005892
0.000826
-0.020717
-0.019120
-0.012242
-0.000305
-0.008819
0.041802
